{289,3}
-0.6632104 -0.093390346 -0.0008125599 -0.2154051 -0.313471 -0.21646307 -0.112490855 0.10366154 -0.32081094 0.6235917 0.023855442 0.047152087 -0.1183903 0.1737225 -0.23564655 0.044533204 -0.1572371 0.15355045 0.40315416 0.14573687 0.05261954 0.012717666 0.25790367 -0.19860058 0.7276466 0.14144257 -0.057488423 0.040747587 -0.06607754 -0.07244722 -0.37471315 0.011667703 -0.14300974 0.41484827 0.0018908783 0.51959515 0.19070685 0.019279432 0.016473228 -0.07178021 0.08207873 -0.052248035 -0.28606308 -0.013946271 -0.045393538 0.054129615 -0.041174687 0.10051143 -0.02432394 -0.15701507 -0.16677468 -0.095333666 0.14676362 -0.016946256 0.21279442 -0.023457658 0.062172588 -0.078604475 0.7982527 0.059189472 0.06487667 0.0006795837 0.051737707 0.10169012 -0.12138347 -0.23972268 0.08944966 -0.0702017 -0.65476847 0.13106863 -0.08705528 0.013488817 -0.00010065362 0.607697 -0.014673558 0.041223194 0.6087952 -0.15294921 0.06251087 -0.004198068 0.05828376 0.0076805856 -0.37589428 -0.0362041 -0.12569073 0.22164409 -0.019518465 0.1240955 -0.028315267 -0.7423384 0.021310173 -0.5854809 0.2885283 0.519022 -0.29711306 -0.09554839 -0.587628 -0.07953334 0.022792414 0.5719167 -0.48709258 0.250077 0.0019108129 -0.106102586 -0.0009322693 -0.107938595 0.0335494 -0.09861987 0.24736515 0.025448741 1.9441946 0.23146276 0.16695087 0.010317037 0.04073476 -0.022308905 -0.58297515 -0.04216528 0.71771735 0.16416228 0.084492244 -0.041471906 0.35096955 0.22730197 -0.06359055 0.19154267 -0.5425852 6.665423 1.3384229 0.20390812 -0.46824974 0.38813612 -0.17367887 0.035881534 0.10553195 -0.35797632 -0.37921605 -0.007860271 -0.025592336 -0.018527182 -0.0115417885 0.0632099 0.2926933 -0.02504026 0.95097286 -6.1450377 0.8087481 -1.5767864 -0.36023572 -0.10604365 0.017947104 0.016056772 0.7701452 0.17056324 -0.09271967 -0.0039238264 -0.3216223 -0.116164565 -0.11700922 -0.14763124 0.12205798 -1.1552888 -0.3727061 -0.4462762 -0.42659324 -0.20011905 0.10272192 -0.16473502 0.89169836 0.23515256 0.22797282 0.048650395 0.02822192 0.097000554 -0.24984252 0.100134164 -0.11876629 -0.24716465 -0.20310007 -0.027510416 -0.0399564 -0.036350187 -0.106623285 -0.034697723 -0.037398264 0.4557062 0.27117568 -0.29481423 0.88725317 0.048773892 -0.44815993 -0.066274524 0.05126575 -0.02837811 -0.047958586 -0.16924416 -0.084851906 -0.042566795 0.087497205 -0.04944852 0.0448015 -0.009709928 0.48394105 0.7055086 -0.29777557 0.04315114 -0.18139933 0.15289359 0.21075009 0.076911926 -0.00563861 -0.9103614 0.5684769 0.009824992 0.1710016 0.14303938 0.4115771 -0.3409445 -0.28298843 -0.3864158 0.19991998 0.21091725 -0.04177273 0.1993796 -0.1539752 0.025871428 -0.1534858 0.09418015 -0.07898989 -0.08170509 0.12629461 0.12482799 0.019892555 -0.1429936 -0.18721263 -0.026526412 0.41207534 0.014928035 -0.1256248 -0.16680829 0.034896474 0.027923653 0.0046634674 -0.062053766 0.06318278 -0.11131714 -0.053551298 0.017106304 0.26576468 -0.08503822 0.14445768 -0.30177024 0.28736603 -0.14142677 -0.19013476 -0.06246095 0.7990806 -0.031204993 0.15145105 0.15390651 -0.074498974 -0.101303995 0.044798277 -0.24307549 0.2315408 -0.38815835 -0.76644444 0.068588115 0.19178928 0.32071236 0.16032474 -0.50965333 -0.1043572 -0.32209092 0.286451 -0.9592442 0.07180504 0.60008246 0.25223586 0.21281865 0.11941864 -0.3007735 0.07523735 0.08525065 -0.33452833 0.45420483 -0.1610196 0.007451967 -0.0750932 
0.6112236 0.28918672 -0.3911878 0.107719995 0.19134146 0.09909718 0.06168698 -0.10823528 -0.56675136 0.02840566 0.28151208 0.30560878 -0.49241203 -0.04257898 -0.13095427 0.1684147 -0.037172224 -0.035014313 0.039485734 -0.88700986 0.062251624 0.11903713 -0.2629621 -0.019037426 -0.054720636 -0.45699608 0.04853699 0.10933757 0.040408246 -0.7584852 -0.025904091 0.48623407 0.11437957 -0.17089462 -0.030949429 0.0017097782 0.035243243 0.051241346 -0.036581516 -0.049855802 0.01395196 0.008203987 0.008074164 0.011461291 -0.0043315184 -0.10064328 -0.062443577 -0.06673871 0.14657131 -0.10778013 -0.123936996 0.06641114 -0.29866862 0.09781374 -0.05651391 0.08979105 -0.037542183 -0.17967604 -0.15129429 -0.05710826 0.2191993 -0.10035467 -0.013422493 0.009732362 0.11179012 -0.058465436 0.002976037 0.012625514 -0.19049025 -0.21640068 -0.05538971 -0.07478896 0.031158412 -0.05037467 -0.1613046 -0.22247088 0.27669084 -0.023796475 0.032943387 -0.00038543562 -0.05793124 -0.31856433 -0.045092225 0.08979609 0.66231173 0.5127638 -0.048867043 -0.012365977 -0.029374467 0.041996036 -0.03413814 -0.12365333 -0.36032122 0.6480088 -0.12918188 0.05673304 -0.46293366 -0.0833812 0.010242453 0.018862288 0.22278942 -0.17517328 0.20334527 -0.3272854 0.110855125 0.12513597 0.041718457 0.0035307365 -0.096139714 -0.18652485 1.0040098 0.08005041 0.076173596 -0.0071665384 0.0005077566 0.07719853 0.2942494 0.3253839 0.12644015 0.11994731 -0.534315 0.08371698 0.010538134 0.15380168 0.025697473 -0.1492893 -1.5344988 -2.4940739 0.015707182 -0.19159013 -0.4555949 -0.79816294 0.12004281 -0.3094885 0.34807438 0.046900168 -0.21290624 0.27627698 0.008731003 0.04878275 -0.1931678 -0.12279122 -0.26607695 -0.7807846 0.95724595 3.9030807 2.1781561 1.2361683 0.65070295 0.2948335 0.028067963 0.7866237 -0.21982582 -0.040101256 0.17064369 -0.014156352 -0.1300637 -0.025626639 0.06154266 -1.1472378 -0.12285745 -2.5933042 0.19901094 -0.20581073 -0.35440934 -0.08302258 -0.12833071 0.012156632 -0.32898396 0.28732502 0.06626967 -0.12523384 0.19208863 -0.014875194 0.009674877 -0.8661791 0.0053595053 -0.11614981 -0.7171613 0.26884255 -0.013184604 0.08534742 1.1037894 0.023497669 0.16213278 -1.07627 0.6824952 0.32610652 -0.15700391 0.7830275 -0.15403087 0.0142974015 -0.0064478535 -0.166319 0.28069767 -0.6629811 0.096598096 0.0015170802 0.013028653 -0.01309426 0.0032783737 -0.46658266 0.34382612 0.23617703 -0.43264043 -0.29230532 -0.027892487 -0.09173311 0.00898498 -0.02073382 -0.16512394 0.76691365 0.5251604 0.039242923 -0.030694729 0.7065166 -0.006758515 -0.027052335 0.044910528 -0.40986913 -0.09089768 0.06893743 -0.18965514 -0.021635091 0.039252695 0.04477031 -0.012055687 -0.12115091 -0.08387271 -0.27063483 0.06566299 -0.08698786 -0.15290509 -0.0135040805 -0.02933891 -0.4310658 -0.92683256 -0.05938292 0.47944057 -0.1889033 0.010755161 -0.10992033 -0.34259045 0.025384694 0.0061873337 -0.07180485 0.2557193 0.042057674 -0.33281606 0.25098693 -0.100632146 0.41455817 0.0060361326 -0.27900288 0.008740687 -0.18113081 0.6855016 0.20580715 0.10036868 0.010147988 0.0024533037 -0.49212357 0.026775727 0.026388133 -0.017490273 0.0033101025 0.22110729 -0.006279331 -0.10258472 0.034857884 -0.09838759 -0.19943336 0.17229928 0.07249133 0.6601869 -0.32277516 0.19244123 -0.06047202 0.076534085 0.227332 0.7019739 0.10157259 0.8169686 0.26975775 -0.7464957 -0.090197675 0.20300883 -0.20740151 0.18357848 
-1.310804 -0.3522043 0.013762548 0.6926041 0.06300057 -0.7592365 -0.018240094 -0.39451373 0.25773853 -5.7498737E-06 0.23435187 0.30150008 0.22871792 -0.20693603 0.248389 0.4414206 0.42360047 0.32226646 0.11039707 -0.8902793 0.2816014 0.44234174 0.20689824 -0.024595361 -0.112815976 -0.31759173 -0.04498474 0.36630327 0.025177702 0.46992904 -0.29329303 0.20772979 0.50721264 0.4694906 0.045402914 -0.2422898 -0.086389825 0.2443055 -0.289604 -0.00948087 -0.54952824 0.116985545 0.019907683 -0.5231339 0.103564665 -0.1134472 -0.39472297 0.15683384 -0.10132837 -0.04103919 0.9400961 -0.18364678 0.43002698 -0.12664929 0.036358356 -0.061302867 0.036981717 0.13813414 0.1123421 -0.06636546 -0.018715395 -0.10002826 0.09926683 0.9913014 -0.19483256 0.015148352 0.20810781 -0.021330714 0.20356321 -0.17896093 -0.25005677 0.0026242067 -0.0986833 -0.033712525 0.18223166 0.024298312 0.04948125 0.0196125 0.19524515 0.00944314 -0.1283889 0.027756548 -0.65738964 -0.038551934 0.8503083 0.33389762 0.17737827 -0.016062194 -0.0037242172 -0.016318768 -0.09727153 -0.10001124 -0.04175666 -0.21786323 -0.05373621 0.0039194333 -0.13024703 0.09798358 -0.014812316 0.0109148985 0.15519461 0.124781206 0.3237341 -0.0014511554 0.042922553 -0.07161287 -0.0012252915 -0.124509305 -0.11362582 -0.1713886 -0.5023712 0.85197604 -0.33540118 -0.032265455 -0.112421244 0.030462436 -0.097291194 -0.030607989 0.034572363 -0.10300809 -0.01447745 -0.046526797 -0.01768704 0.0861434 0.0013706629 -0.3277743 -0.010922596 -1.1479217 -0.34618846 -0.19438645 0.14655218 -0.5663471 -0.029955398 -0.9780024 -0.33022228 -0.68129164 -0.06191131 0.049579237 0.017779373 0.02460719 0.07045034 -0.07452166 0.26628146 -0.2550461 0.25851718 -3.724711 -3.8464043 -0.26822263 -0.4239478 0.30595776 -0.13764118 0.032379687 -0.91551924 0.47084248 0.117397524 -0.11371561 0.055332385 0.015192278 0.46129692 0.26564687 0.8753773 2.4408395 1.5129085 0.9619501 0.5988138 0.9728208 0.5363234 -0.17993593 0.26987892 -0.01682775 0.23019485 -0.20331526 0.41065788 -0.05342925 -0.029037137 0.11030477 0.11421686 -0.7145591 0.97966754 0.23294279 0.25611037 0.13998444 0.58678615 0.08863443 0.12282429 0.10027363 0.016174775 1.1823119 0.139224 0.08598699 0.14470391 -0.008644756 -0.10398816 0.21930669 -0.37910077 0.10653538 0.35359502 0.055753186 0.017948303 0.013888517 -0.0058906623 0.058257546 -0.0017564471 0.1565121 -0.0815902 0.18928504 -0.0030786511 0.032573063 -0.06011324 0.03616948 0.00975688 0.18281925 0.0066766674 -0.1378071 -0.045925345 -0.050135642 0.06847373 -0.0014951319 0.04610874 0.13265768 0.06610482 0.37478733 -0.021244695 0.1352142 -0.46389842 -0.27035305 0.0974329 -0.57728326 0.18739128 0.5004521 -0.20224011 0.011854494 0.113347374 0.0028794073 0.39852726 0.051182732 0.37339574 0.117843375 -0.18950596 0.099313594 0.17506783 0.015971664 -0.8532403 0.097453244 -0.21578947 0.10568484 0.19748746 0.96292174 0.033617724 0.86979425 0.019086473 0.06007511 -0.43419087 -0.18910855 -0.45497838 -0.31755427 0.4480197 -0.11813679 -0.115361676 0.0117544755 0.1710383 0.01552003 0.03090561 0.11915801 -0.0005362872 -0.030045474 0.001807376 -0.001634661 0.11876062 -0.26593181 -0.036340337 0.05843214 -0.484128 -0.51679987 0.12784381 0.09236301 -0.20912933 -0.05298372 0.15157072 -0.4620177 0.06973033 0.04393351 -0.34771517 -0.22313964 -0.16796875 -0.12827118 0.2609805 -0.19750844 -0.3565375 
#
