{169,3}
0.05605426 -0.72350115 0.10182711 -0.15062791 -0.13161062 0.21365497 0.3127474 -0.00645157 -0.7850994 0.21965517 -0.16039458 -0.96886575 0.06475498 -0.13708422 0.11140373 0.1377282 0.07720004 -0.9129807 -0.088964395 -0.004045851 0.015990019 0.10430057 0.107784435 0.054048073 -0.43275678 -0.078153275 0.13528264 0.07267219 0.10806664 0.09852 0.1160041 -0.048134223 0.38784528 0.032863434 0.09393051 -0.06997928 0.028963549 -0.65232646 -0.019826375 0.1858456 0.011188165 -0.0070723994 -0.030453315 0.075221166 0.3760654 -0.64799285 -0.0117751425 -0.055301365 0.22246039 0.0007556325 0.115400225 0.09143245 0.09717572 0.9109156 0.067585275 -0.03343729 0.96686447 0.13053894 0.079939686 0.036531705 0.024041988 0.029958302 0.09114091 0.3586678 -0.4897987 0.18128182 -0.0008756497 -0.0469949 -0.6776854 0.21846142 -0.26460877 5.075463 1.3379573 0.6496443 0.30320147 0.2686812 -0.10937215 -0.07632531 0.035635207 -0.0022443866 0.08057534 0.03235354 -0.3689192 -0.37124655 0.77912974 -3.4316437 -1.419851 -0.3180433 -0.07278273 -0.09854056 0.010991837 -0.53233343 0.11287995 0.91075695 -0.14977063 -0.16348688 0.03840023 2.1613698 -0.40933967 0.18809909 -0.05533112 -0.39299488 -0.2965437 -0.32404113 1.0966696 0.19069308 -0.23497069 0.051523626 -0.09564198 -0.36271036 -0.012237679 0.46976423 0.13153598 0.08108464 -0.4620297 0.13514498 0.16028576 0.41048878 0.16316131 0.14881574 0.05123266 -0.1422769 -0.21800733 -0.2545663 -0.05091488 -0.16256885 -0.12159741 -0.11160035 -0.05834762 -0.047831517 0.19859922 -0.00017966537 0.007395677 -0.39934337 -0.07107609 -0.14532378 -0.18414597 0.06140748 0.043374475 0.096043736 -0.028524185 0.21586412 -0.292862 -0.9204234 -0.7240924 0.0619922 -0.40620422 -0.2535738 0.6435654 0.0146359 0.18066296 0.08315579 0.3964657 0.14145863 0.5673456 -0.45896775 -0.104295135 0.045529634 0.6826249 -1.1380042 -0.03835032 0.9713611 0.08712943 0.28274032 0.0009886896 0.4858851 -0.19508572 0.44302973 0.46831903 
1.1305096 -0.011187381 -0.2776074 0.36649224 -0.3739884 -0.001141335 0.3372086 -0.44028425 0.93021595 -0.058976617 -0.26755223 0.36977604 0.20675652 -0.13838792 -0.16145362 0.09417424 0.0115534635 0.00906776 -0.029707985 -0.046613175 0.06766459 0.026968608 -0.072116174 -0.4366255 -0.013141794 -0.06333674 0.14430149 0.018735755 -0.760905 -0.005344341 -0.06747794 -0.8621726 -0.24430512 0.066932864 -0.06880148 0.15278374 0.10324408 0.012450703 -0.054005034 -0.1662281 -0.011390395 -0.6452433 0.11887558 -0.015781742 -0.26652554 -0.32908723 0.38076982 0.05813357 0.0828233 0.10069309 -0.27817047 0.1379139 0.35616422 -0.20471545 0.025744 -0.0047847065 -0.0079714265 -0.34574032 0.5248581 0.27416635 -0.30491936 0.18133743 0.046855524 0.4938936 0.91082084 0.6138562 0.78048193 0.0035550464 -0.4345485 -0.14990446 -0.12705548 -3.1152923 0.07358753 -0.02956416 -0.062821776 -0.011649435 0.033171408 -0.03752411 -0.5296139 0.13918418 0.031102972 0.06548119 0.23624212 0.19200371 0.94937575 3.7176538 1.6130968 0.69162303 0.24173939 0.26274356 1.1160744 -0.24137339 0.18933165 0.20248818 -0.05437212 -0.14831762 -0.10649731 -0.79486096 0.00698011 -0.026610453 -0.045188986 0.31517386 0.99993414 0.101444624 0.28326985 0.22046387 -0.032884628 -0.011937749 0.08034918 -0.47626796 -0.12846696 -0.09340668 -0.041096002 -0.026534341 0.06309149 0.102585025 0.39857486 0.46117017 -0.23515332 -0.044489168 -0.29111075 -0.020084677 0.12994547 0.910462 -0.2840345 -0.06395986 0.45214438 0.022830432 0.030664032 -0.14983787 -0.016950794 -0.11013649 -0.015660714 -0.032214362 -0.03903542 -0.014238688 0.33821845 -0.058725357 0.031122109 -0.09718603 0.16779293 0.14303799 -0.24421072 -0.025204882 -0.16091827 0.0017523916 -0.05271554 -0.019385042 -0.016521536 -0.121113405 -0.10163233 -0.98951626 0.07448799 -0.0048553995 -0.40063187 -0.12058319 -0.7359141 0.04426315 0.06465211 0.43116727 -0.6830307 0.4314325 -0.13599645 0.43853852 0.4405491 0.16596524 -0.79169166 0.19904502 0.154251 
0.519661 -0.06558169 0.36484247 0.38573515 0.53890705 -0.4802891 0.2918164 0.33109367 0.048895806 -0.37998533 0.08361379 0.35403615 0.16963114 -0.7496047 -0.15597606 -0.093938254 0.7453959 -0.1017036 -0.0009126193 -0.62991816 0.3642613 -0.018622065 -0.11479625 0.053769786 -0.098340675 -0.21076035 -0.6717044 0.0017246285 -0.040883586 -0.0005362623 -0.07091065 0.95883954 -0.35131425 0.065555304 0.16299197 -0.045734335 0.91292894 0.22390883 0.11918447 0.009678304 0.0037038045 0.026984451 -0.09186856 -0.061626937 -0.19945462 -0.16722517 -0.006412329 -0.13984282 0.002659211 -0.108285174 -0.28325987 -0.5765514 -0.022165377 0.11609325 0.0060157566 -0.042489618 -0.8005625 -0.25551593 -0.460061 0.09744614 0.1693214 0.006705582 -0.05870521 0.25107175 0.06822616 0.26364523 0.01129065 0.011824849 -0.016250644 0.6039176 0.012731023 -1.5694005 -0.22904402 -0.5485817 0.28911334 0.07431803 -0.012931671 -0.33471572 -0.65859175 -0.06782967 0.57033455 0.03367674 0.44407701 0.043944374 0.35285556 -4.024148 -0.07481083 -0.5173273 0.080283284 -0.14508909 -0.8333571 0.052318938 0.0024556934 0.10381263 0.18180212 0.14444944 0.9402819 6.0785294 1.4564655 0.8302731 -0.71562004 -0.28435254 -0.22237921 0.21973073 -0.28630358 0.05115291 0.039537217 -0.48300838 -0.11240795 0.30953223 0.6241828 -0.1568883 0.04358458 0.009460906 -0.8914838 -0.23070222 -0.011250964 -0.12740736 0.09108485 -0.023047777 0.05079941 0.0050616628 0.21941738 -0.89026606 0.028730266 0.036127456 0.11500405 0.5004139 0.07416656 -0.030270845 0.31593096 0.21997586 0.019219816 0.070841335 0.14164187 0.06685555 0.43602258 -0.90911627 0.02343136 -0.18260227 -0.11282199 -0.07198671 0.04462313 0.65790284 -0.0052504623 0.16876443 0.5219048 -0.16149431 0.06377365 -0.14632118 -0.058444206 -0.048110843 -0.047451437 -0.5328294 -0.24616632 0.01471444 -0.43180388 -0.18145873 -0.01156577 0.60736525 0.36878908 0.4286635 -0.029156355 0.22344355 0.084504895 -0.053378522 0.33746716 -0.07194466 0.3479449 
#
