{441,1}
-0.24485596 0.41145152 -0.22428577 0.054329116 -0.4001351 0.49680144 -0.096358694 0.35867468 0.15381269 0.13204522 0.53801805 -0.28578445 -0.24414152 -0.48157263 -0.083894104 0.0029971476 0.25601202 0.077108935 -0.11094591 0.31744108 -0.1896537 -0.029517109 -0.1255401 0.33117557 -0.1256399 -0.44365606 -0.5229875 0.11098723 -0.2462356 -0.16382414 0.23163983 0.23443668 -0.07632604 -0.36917448 -0.27327606 -0.26521412 0.3110175 -0.3905961 -0.4833768 -0.26850823 -0.4517648 0.1604209 0.20157102 -0.03989472 0.38231793 0.2783392 0.24794449 -0.19543587 0.18927245 0.018299766 -0.45519122 0.2293325 -0.2912151 0.15752968 -0.17943016 0.14178306 -0.21326527 -0.02848413 0.21512017 -0.030741114 -0.4224259 0.18813646 0.008376667 -0.08657168 0.5252338 0.25346223 -0.3546136 -0.2809853 -0.021797586 0.06585478 -0.18035099 0.0072796717 -0.39089566 -0.094116285 0.26722744 -0.47536296 -0.32950732 -0.16329905 0.017302234 -0.2774515 0.33237007 0.16268305 0.45389146 -0.28026912 0.40296134 0.056091063 0.17316632 -0.20834732 -0.46274254 0.15208507 -0.25438204 -0.27190527 0.12638025 -0.25468504 -0.70685107 0.14518535 0.2437963 0.1574636 -0.029857792 -0.38514608 -0.15820535 -0.035200734 0.18152817 -0.26825604 -0.23807251 0.2217292 -0.24928144 0.30525357 -0.23323075 0.113184355 0.13287163 0.19699506 -0.5366685 -0.10691809 -0.22932804 -0.34585935 -0.27325782 -0.10514407 -0.066922635 0.08363614 0.085179925 0.20624061 -0.03852242 0.11541687 -0.28785136 0.34054247 -0.19108665 0.4264346 0.43033627 0.18704495 -0.1099914 -0.26362592 -0.22072183 -0.05212546 -0.12072991 -0.10747465 -0.8466502 -0.6158808 0.14862292 0.26640192 0.09947943 -0.19328472 0.13550298 0.019901076 0.001540903 0.34425876 0.45255628 -0.3421805 -0.033373255 0.069326535 0.104991145 -0.0725877 0.10623051 0.001207877 0.03633336 -0.8277203 -0.27986214 -0.5173522 -0.6010106 -0.46803325 -0.54301953 -0.4846861 0.18850586 -0.32536027 -0.18287995 -0.48702946 0.061055213 -0.24395578 -0.11602219 -0.05889986 0.19124334 -0.121736884 -0.27079538 -0.11458621 -0.07367449 -0.46875793 0.06317905 -0.73590475 -1.6138171 -0.57835114 -0.25805148 -0.31389198 -0.2591688 0.20451967 0.4536045 -0.06649372 -0.11565462 0.3018813 0.27311292 -0.23489594 -0.33334467 0.124257036 0.08392071 0.10511782 -0.62348604 -0.2513967 -0.4046178 0.10460913 -0.7976034 -2.4895456 -1.3948414 -0.6147052 -0.5008714 -0.15286 0.22825459 0.048434556 -0.4929017 0.22188888 -0.49564433 -0.10908272 0.064470895 -0.22186328 0.20228161 0.19982737 -0.18618971 0.12842274 -0.4026338 -0.1349954 -0.065362394 0.21122028 0.13260461 -0.05527748 0.13576086 -0.17748599 0.15400527 -0.055029362 -0.3485493 0.5041914 0.022828255 0.28014725 -0.30899438 0.21681058 0.08347799 0.41726524 -0.1891317 0.5947449 0.19377841 0.062467277 0.6655153 0.3596382 0.5751226 2.0329273 0.82092786 0.786295 0.22381394 0.45981422 -0.16276583 0.30661285 0.16231334 -0.09370291 0.18590398 0.31469473 0.014963875 -0.0035252022 0.27300742 -0.15000935 -0.30598143 -0.2746969 0.2906871 -0.11891534 -0.032802887 0.19170952 1.6884059 0.7258329 0.122854926 -0.15063627 0.04378618 -0.03034214 0.45438266 -0.16942957 -0.40989697 0.37275875 0.42204127 0.23450795 0.57705617 -0.4674474 -0.64682305 -0.5267507 0.31697044 0.04286877 -0.23210226 0.14389963 0.42043114 0.9578763 0.3008951 -0.037227534 0.3458376 0.3930732 0.027564023 -0.06483871 0.055173896 0.61553943 -0.035009395 0.15474674 -0.27028283 -0.17205687 0.017541163 -0.19019698 0.0647562 -0.083382115 0.29739657 0.36700115 0.17199485 -0.033594724 0.6544413 0.1167396 -0.1683335 0.07234462 -0.025071647 0.05988039 -0.10399482 0.18380748 0.08311551 0.14525585 0.12437305 0.22589162 0.12985954 -0.3909451 -0.12464328 0.17325994 -0.18921338 -0.05505145 -0.24258122 -0.37058437 0.13827366 -0.16675498 -0.031450257 0.09544799 -0.2371999 0.19744918 -0.202256 0.28930002 -0.03892462 -0.37910903 -0.532291 0.29806495 0.0019192547 -0.37246987 0.07142925 -0.069663286 -0.24619679 0.62231684 -0.010714459 0.044276185 0.111224696 0.10403406 0.086044826 0.5640556 0.077918775 -0.09517476 0.11345197 0.5761315 -0.17808715 -0.19015373 -0.14166199 -0.47558028 0.23794873 -0.17614506 0.16140284 0.32860437 0.4216339 0.24379894 0.08158237 0.04142601 0.06007286 0.25128978 -0.4850051 0.05905257 0.04324881 0.29407656 0.5970811 0.20265515 0.42437673 -0.02848048 0.011403953 -0.29525426 -0.20740375 0.044350937 0.18444811 -0.25386003 0.18851748 0.22108334 -0.037518814 0.07870308 -0.23799342 0.3594616 0.33480766 0.21723095 -0.20736586 0.24058226 0.26358828 0.32837054 -0.28390098 0.4329775 -0.24794315 0.016175784 0.3352034 -0.2770929 -0.51942587 -0.4451753 -0.113556854 -0.21475647 0.388267 -0.14605382 0.18398751 0.21795776 0.39369404 -0.3230249 0.51981723 0.037980895 0.5583197 0.15236148 -0.015626337 0.3042455 0.11002473 0.2919884 -0.20237535 0.2228137 0.15968788 0.103680864 0.33280247 0.13793351 -0.51130617 -0.39225373 -0.0003620008 0.35499123 -0.40138918 -0.294573 0.23234828 -0.26321033 0.17038788 -0.3529049 0.13395667 -0.42050233 0.16904044 0.21679243 -0.12349189 -0.29786924 0.45850247 -0.077494666 -0.19550245 
#
